net
{
	propagationenginegenerator1791944048146838126L = "edu.ucla.belief.approx.BeliefPropagationSettings@129d25c";
	huginenginegenerator3061656038650325130L = "edu.ucla.belief.inference.JoinTreeSettings@fb2366";
	recoveryenginegenerator6944530267470113528l = "edu.ucla.util.SettingsImpl@59ffc7";
	node_size = (130.0 55.0);
}

node R2_0
{
	states = ("r1" "r2" "r3" );
	position = (238 -71);
	excludepolicy = "include whole CPT";
	ismapvariable = "false";
	ID = "variable0";
	label = "R2_0";
	DSLxEXTRA_DEFINITIONxDIAGNOSIS_TYPE = "AUXILIARY";
	diagnosistype = "AUXILIARY";
}
node R1_2
{
	states = ("r1" "r2" "r3" );
	position = (592 6);
	excludepolicy = "include whole CPT";
	ismapvariable = "false";
	ID = "variable0";
	label = "R1_2";
	DSLxEXTRA_DEFINITIONxDIAGNOSIS_TYPE = "AUXILIARY";
	diagnosistype = "AUXILIARY";
}
node S2_R1_R3
{
	states = ("w" "l" );
	position = (721 -286);
	excludepolicy = "include whole CPT";
	ismapvariable = "false";
	ID = "variable1";
	label = "S2_R1_R3";
	DSLxEXTRA_DEFINITIONxDIAGNOSIS_TYPE = "AUXILIARY";
	diagnosistype = "AUXILIARY";
}
node R1_0
{
	states = ("r1" "r2" "r3" );
	position = (237 7);
	excludepolicy = "include whole CPT";
	ismapvariable = "false";
	ID = "variable0";
	label = "R1_0";
	DSLxEXTRA_DEFINITIONxDIAGNOSIS_TYPE = "AUXILIARY";
	diagnosistype = "AUXILIARY";
}
node R3_0
{
	states = ("r1" "r2" "r3" );
	position = (238 -164);
	excludepolicy = "include whole CPT";
	ismapvariable = "false";
	ID = "variable0";
	label = "R3_0";
	DSLxEXTRA_DEFINITIONxDIAGNOSIS_TYPE = "AUXILIARY";
	diagnosistype = "AUXILIARY";
}
node R3_2
{
	states = ("r1" "r2" "r3" );
	position = (602 -165);
	excludepolicy = "include whole CPT";
	ismapvariable = "false";
	ID = "variable0";
	label = "R3_2";
	DSLxEXTRA_DEFINITIONxDIAGNOSIS_TYPE = "AUXILIARY";
	diagnosistype = "AUXILIARY";
}
node R3_1
{
	states = ("r1" "r2" "r3" );
	position = (427 -170);
	excludepolicy = "include whole CPT";
	ismapvariable = "false";
	ID = "variable0";
	label = "R3_1";
	DSLxEXTRA_DEFINITIONxDIAGNOSIS_TYPE = "AUXILIARY";
	diagnosistype = "AUXILIARY";
}
node R1_1
{
	states = ("r1" "r2" "r3" );
	position = (420 7);
	excludepolicy = "include whole CPT";
	ismapvariable = "false";
	ID = "variable0";
	label = "R1_1";
	DSLxEXTRA_DEFINITIONxDIAGNOSIS_TYPE = "AUXILIARY";
	diagnosistype = "AUXILIARY";
}
node S1_R2_R3
{
	states = ("w" "l" );
	position = (518 -285);
	excludepolicy = "include whole CPT";
	ismapvariable = "false";
	ID = "variable1";
	label = "S1_R2_R3";
	DSLxEXTRA_DEFINITIONxDIAGNOSIS_TYPE = "AUXILIARY";
	diagnosistype = "AUXILIARY";
}
node S0_R1_R2
{
	states = ("w" "l" );
	position = (328 -289);
	excludepolicy = "include whole CPT";
	ismapvariable = "false";
	ID = "variable1";
	label = "S0_R1_R2";
	DSLxEXTRA_DEFINITIONxDIAGNOSIS_TYPE = "AUXILIARY";
	diagnosistype = "AUXILIARY";
}
node R2_2
{
	states = ("r1" "r2" "r3" );
	position = (594 -76);
	excludepolicy = "include whole CPT";
	ismapvariable = "false";
	ID = "variable0";
	label = "R2_2";
	DSLxEXTRA_DEFINITIONxDIAGNOSIS_TYPE = "AUXILIARY";
	diagnosistype = "AUXILIARY";
}
node R2_1
{
	states = ("r1" "r2" "r3" );
	position = (421 -74);
	excludepolicy = "include whole CPT";
	ismapvariable = "false";
	ID = "variable0";
	label = "R2_1";
	DSLxEXTRA_DEFINITIONxDIAGNOSIS_TYPE = "AUXILIARY";
	diagnosistype = "AUXILIARY";
}
potential ( R2_0 | )
{
	data = (	0.3333333333333333	0.3333333333333333	0.3333333333333333	);
}
potential ( R1_2 | R1_1 )
{
	data = ((	0.98	0.01	0.01	)
		(	0.01	0.98	0.01	)
		(	0.01	0.02	0.97	));
}
potential ( S2_R1_R3 | R1_2 R3_2 )
{
	data = (((	0.5	0.5	)
		(	0.33333	0.66667	)
		(	0.25	0.75	))
		((	0.66667	0.33333	)
		(	0.5	0.5	)
		(	0.4	0.6	))
		((	0.75	0.25	)
		(	0.6	0.4	)
		(	0.5	0.5	)));
}
potential ( R1_0 | )
{
	data = (	0.3333333333333333	0.3333333333333333	0.3333333333333333	);
}
potential ( R3_0 | )
{
	data = (	0.3333333333333333	0.3333333333333333	0.3333333333333333	);
}
potential ( R3_2 | R3_1 )
{
	data = ((	0.98	0.01	0.01	)
		(	0.01	0.98	0.01	)
		(	0.01	0.02	0.97	));
}
potential ( R3_1 | R3_0 )
{
	data = ((	0.98	0.01	0.01	)
		(	0.01	0.98	0.01	)
		(	0.01	0.02	0.97	));
}
potential ( R1_1 | R1_0 )
{
	data = ((	0.98	0.01	0.01	)
		(	0.01	0.98	0.01	)
		(	0.01	0.02	0.97	));
}
potential ( S1_R2_R3 | R2_1 R3_1 )
{
	data = (((	0.5	0.5	)
		(	0.33333	0.66667	)
		(	0.25	0.75	))
		((	0.66667	0.33333	)
		(	0.5	0.5	)
		(	0.4	0.6	))
		((	0.75	0.25	)
		(	0.6	0.4	)
		(	0.5	0.5	)));
}
potential ( S0_R1_R2 | R1_0 R2_0 )
{
	data = (((	0.5	0.5	)
		(	0.33333	0.66667	)
		(	0.25	0.75	))
		((	0.66667	0.33333	)
		(	0.5	0.5	)
		(	0.4	0.6	))
		((	0.75	0.25	)
		(	0.6	0.4	)
		(	0.5	0.5	)));
}
potential ( R2_2 | R2_1 )
{
	data = ((	0.98	0.01	0.01	)
		(	0.01	0.98	0.01	)
		(	0.01	0.02	0.97	));
}
potential ( R2_1 | R2_0 )
{
	data = ((	0.98	0.01	0.01	)
		(	0.01	0.98	0.01	)
		(	0.01	0.02	0.97	));
}
